<?xml version="1.0"?>
<opencv_storage>
<cascade>
  <stageType>BOOST</stageType>
  <featureType>HAAR</featureType>
  <height>24</height>
  <width>24</width>
  <stageParams>
    <boostType>GAB</boostType>
    <minHitRate>9.9500000476837158e-01</minHitRate>
    <maxFalseAlarm>5.0000000000000000e-01</maxFalseAlarm>
    <weightTrimRate>9.4999999999999996e-01</weightTrimRate>
    <maxDepth>1</maxDepth>
    <maxWeakCount>100</maxWeakCount></stageParams>
  <featureParams>
    <maxCatCount>0</maxCatCount>
    <featSize>1</featSize>
    <mode>BASIC</mode></featureParams>
  <stageNum>9</stageNum>
  <stages>
    <!-- stage 0 -->
    <_>
      <maxWeakCount>1</maxWeakCount>
      <stageThreshold>1.</stageThreshold>
      <weakClassifiers>
        <_>
          <internalNodes>
            0 -1 0 -6.3380674691870809e-04</internalNodes>
          <leafValues>
            1. -1.</leafValues></_></weakClassifiers></_>
    <!-- stage 1 -->
    <_>
      <maxWeakCount>1</maxWeakCount>
      <stageThreshold>3.8461539149284363e-01</stageThreshold>
      <weakClassifiers>
        <_>
          <internalNodes>
            0 -1 10 -5.3710415959358215e-03</internalNodes>
          <leafValues>
            3.8461539149284363e-01 -1.</leafValues></_></weakClassifiers></_>
    <!-- stage 2 -->
    <_>
      <maxWeakCount>2</maxWeakCount>
      <stageThreshold>-1.3521578907966614e-01</stageThreshold>
      <weakClassifiers>
        <_>
          <internalNodes>
            0 -1 7 5.8401306159794331e-03</internalNodes>
          <leafValues>
            -9.5833331346511841e-01 7.7777779102325439e-01</leafValues></_>
        <_>
          <internalNodes>
            0 -1 14 -8.2816109061241150e-03</internalNodes>
          <leafValues>
            1. -9.1299355030059814e-01</leafValues></_></weakClassifiers></_>
    <!-- stage 3 -->
    <_>
      <maxWeakCount>2</maxWeakCount>
      <stageThreshold>-1.3360667228698730e-01</stageThreshold>
      <weakClassifiers>
        <_>
          <internalNodes>
            0 -1 9 1.3443597126752138e-03</internalNodes>
          <leafValues>
            -9.5833331346511841e-01 7.7777779102325439e-01</leafValues></_>
        <_>
          <internalNodes>
            0 -1 6 1.2453839182853699e-02</internalNodes>
          <leafValues>
            -9.1138446331024170e-01 8.6653816699981689e-01</leafValues></_></weakClassifiers></_>
    <!-- stage 4 -->
    <_>
      <maxWeakCount>2</maxWeakCount>
      <stageThreshold>-2.9837856069207191e-02</stageThreshold>
      <weakClassifiers>
        <_>
          <internalNodes>
            0 -1 1 9.3153655529022217e-02</internalNodes>
          <leafValues>
            -9.2000001668930054e-01 1.</leafValues></_>
        <_>
          <internalNodes>
            0 -1 3 8.9818015694618225e-03</internalNodes>
          <leafValues>
            -9.2440634965896606e-01 8.9016216993331909e-01</leafValues></_></weakClassifiers></_>
    <!-- stage 5 -->
    <_>
      <maxWeakCount>2</maxWeakCount>
      <stageThreshold>1.1764705926179886e-01</stageThreshold>
      <weakClassifiers>
        <_>
          <internalNodes>
            0 -1 2 -5.6578200310468674e-03</internalNodes>
          <leafValues>
            1. -8.8235294818878174e-01</leafValues></_>
        <_>
          <internalNodes>
            0 -1 8 1.9574837759137154e-02</internalNodes>
          <leafValues>
            -8.6205148696899414e-01 1.</leafValues></_></weakClassifiers></_>
    <!-- stage 6 -->
    <_>
      <maxWeakCount>2</maxWeakCount>
      <stageThreshold>2.3247737437486649e-02</stageThreshold>
      <weakClassifiers>
        <_>
          <internalNodes>
            0 -1 4 -1.2336300686001778e-02</internalNodes>
          <leafValues>
            1. -8.8235294818878174e-01</leafValues></_>
        <_>
          <internalNodes>
            0 -1 5 -1.9435685127973557e-02</internalNodes>
          <leafValues>
            9.0560066699981689e-01 -8.9260363578796387e-01</leafValues></_></weakClassifiers></_>
    <!-- stage 7 -->
    <_>
      <maxWeakCount>2</maxWeakCount>
      <stageThreshold>-2.9606193304061890e-01</stageThreshold>
      <weakClassifiers>
        <_>
          <internalNodes>
            0 -1 11 1.2404973804950714e-01</internalNodes>
          <leafValues>
            -9.1666668653488159e-01 5.5555558204650879e-01</leafValues></_>
        <_>
          <internalNodes>
            0 -1 15 7.0963306352496147e-03</internalNodes>
          <leafValues>
            -8.5161751508712769e-01 8.9609903097152710e-01</leafValues></_></weakClassifiers></_>
    <!-- stage 8 -->
    <_>
      <maxWeakCount>2</maxWeakCount>
      <stageThreshold>-1.1903124302625656e-01</stageThreshold>
      <weakClassifiers>
        <_>
          <internalNodes>
            0 -1 13 -6.1528952792286873e-03</internalNodes>
          <leafValues>
            7.1428573131561279e-01 -8.7999999523162842e-01</leafValues></_>
        <_>
          <internalNodes>
            0 -1 12 -1.2813217937946320e-02</internalNodes>
          <leafValues>
            1. -8.3331698179244995e-01</leafValues></_></weakClassifiers></_></stages>
  <features>
    <_>
      <rects>
        <_>
          0 1 3 6 -1.</_>
        <_>
          0 4 3 3 2.</_></rects>
      <tilted>0</tilted></_>
    <_>
      <rects>
        <_>
          0 8 19 12 -1.</_>
        <_>
          0 12 19 4 3.</_></rects>
      <tilted>0</tilted></_>
    <_>
      <rects>
        <_>
          0 9 10 2 -1.</_>
        <_>
          0 10 10 1 2.</_></rects>
      <tilted>0</tilted></_>
    <_>
      <rects>
        <_>
          0 11 17 3 -1.</_>
        <_>
          0 12 17 1 3.</_></rects>
      <tilted>0</tilted></_>
    <_>
      <rects>
        <_>
          2 19 18 2 -1.</_>
        <_>
          2 19 9 1 2.</_>
        <_>
          11 20 9 1 2.</_></rects>
      <tilted>0</tilted></_>
    <_>
      <rects>
        <_>
          4 16 9 8 -1.</_>
        <_>
          7 16 3 8 3.</_></rects>
      <tilted>0</tilted></_>
    <_>
      <rects>
        <_>
          5 14 19 3 -1.</_>
        <_>
          5 15 19 1 3.</_></rects>
      <tilted>0</tilted></_>
    <_>
      <rects>
        <_>
          6 21 16 2 -1.</_>
        <_>
          6 21 8 1 2.</_>
        <_>
          14 22 8 1 2.</_></rects>
      <tilted>0</tilted></_>
    <_>
      <rects>
        <_>
          9 10 14 4 -1.</_>
        <_>
          9 10 7 2 2.</_>
        <_>
          16 12 7 2 2.</_></rects>
      <tilted>0</tilted></_>
    <_>
      <rects>
        <_>
          11 14 2 3 -1.</_>
        <_>
          11 15 2 1 3.</_></rects>
      <tilted>0</tilted></_>
    <_>
      <rects>
        <_>
          12 9 12 2 -1.</_>
        <_>
          18 9 6 2 2.</_></rects>
      <tilted>0</tilted></_>
    <_>
      <rects>
        <_>
          13 5 11 15 -1.</_>
        <_>
          13 10 11 5 3.</_></rects>
      <tilted>0</tilted></_>
    <_>
      <rects>
        <_>
          16 0 8 4 -1.</_>
        <_>
          16 2 8 2 2.</_></rects>
      <tilted>0</tilted></_>
    <_>
      <rects>
        <_>
          17 18 7 3 -1.</_>
        <_>
          17 19 7 1 3.</_></rects>
      <tilted>0</tilted></_>
    <_>
      <rects>
        <_>
          20 4 4 2 -1.</_>
        <_>
          22 4 2 2 2.</_></rects>
      <tilted>0</tilted></_>
    <_>
      <rects>
        <_>
          20 8 4 6 -1.</_>
        <_>
          20 8 2 3 2.</_>
        <_>
          22 11 2 3 2.</_></rects>
      <tilted>0</tilted></_></features></cascade>
</opencv_storage>
